digraph Tree {
node [shape=box, style="filled, rounded", color="black", fontname=helvetica] ;
edge [fontname=helvetica] ;
0 [label="petal length (cm) <= 2.45\ngini = 0.67\nsamples = 99\nvalue = [50, 52, 48]\nclass = versicolor", fillcolor="#fbfefc"] ;
1 [label="gini = 0.0\nsamples = 37\nvalue = [50, 0, 0]\nclass = setosa", fillcolor="#e58139"] ;
0 -> 1 [labeldistance=2.5, labelangle=45, headlabel="True"] ;
2 [label="petal width (cm) <= 1.65\ngini = 0.5\nsamples = 62\nvalue = [0, 52, 48]\nclass = versicolor", fillcolor="#f0fdf5"] ;
0 -> 2 [labeldistance=2.5, labelangle=-45, headlabel="False"] ;
3 [label="gini = 0.0\nsamples = 31\nvalue = [0, 51, 0]\nclass = versicolor", fillcolor="#39e581"] ;
2 -> 3 ;
4 [label="petal length (cm) <= 4.85\ngini = 0.04\nsamples = 31\nvalue = [0, 1, 48]\nclass = virginica", fillcolor="#843de6"] ;
2 -> 4 ;
5 [label="sepal width (cm) <= 3.1\ngini = 0.22\nsamples = 4\nvalue = [0, 1, 7]\nclass = virginica", fillcolor="#9355e9"] ;
4 -> 5 ;
6 [label="gini = 0.0\nsamples = 3\nvalue = [0, 0, 7]\nclass = virginica", fillcolor="#8139e5"] ;
5 -> 6 ;
7 [label="gini = 0.0\nsamples = 1\nvalue = [0, 1, 0]\nclass = versicolor", fillcolor="#39e581"] ;
5 -> 7 ;
8 [label="gini = 0.0\nsamples = 27\nvalue = [0, 0, 41]\nclass = virginica", fillcolor="#8139e5"] ;
4 -> 8 ;
}